digraph Tree {
node [shape=box, fontname="helvetica"] ;
edge [fontname="helvetica"] ;
0 [label="Population_Driver_licence(%) <= 0.667\nsquared_error = 14349.546\nsamples = 38\nvalue = 577.079"] ;
1 [label="Average_income <= 4395.0\nsquared_error = 6978.062\nsamples = 34\nvalue = 549.235"] ;
0 -> 1 [labeldistance=2.5, labelangle=45, headlabel="True"] ;
2 [label="Petrol_tax <= 7.75\nsquared_error = 3300.952\nsamples = 21\nvalue = 591.0"] ;
1 -> 2 ;
3 [label="Paved_Highways <= 6482.5\nsquared_error = 3103.408\nsamples = 13\nvalue = 616.769"] ;
2 -> 3 ;
4 [label="Paved_Highways <= 4423.0\nsquared_error = 2245.76\nsamples = 5\nvalue = 653.8"] ;
3 -> 4 ;
5 [label="Population_Driver_licence(%) <= 0.528\nsquared_error = 340.667\nsamples = 3\nvalue = 617.0"] ;
4 -> 5 ;
6 [label="squared_error = 0.0\nsamples = 1\nvalue = 591.0"] ;
5 -> 6 ;
7 [label="Population_Driver_licence(%) <= 0.575\nsquared_error = 4.0\nsamples = 2\nvalue = 630.0"] ;
5 -> 7 ;
8 [label="squared_error = 0.0\nsamples = 1\nvalue = 628.0"] ;
7 -> 8 ;
9 [label="squared_error = 0.0\nsamples = 1\nvalue = 632.0"] ;
7 -> 9 ;
10 [label="Population_Driver_licence(%) <= 0.563\nsquared_error = 25.0\nsamples = 2\nvalue = 709.0"] ;
4 -> 10 ;
11 [label="squared_error = 0.0\nsamples = 1\nvalue = 714.0"] ;
10 -> 11 ;
12 [label="squared_error = 0.0\nsamples = 1\nvalue = 704.0"] ;
10 -> 12 ;
13 [label="Paved_Highways <= 7369.5\nsquared_error = 2246.734\nsamples = 8\nvalue = 593.625"] ;
3 -> 13 ;
14 [label="Average_income <= 3923.5\nsquared_error = 708.222\nsamples = 3\nvalue = 544.333"] ;
13 -> 14 ;
15 [label="Paved_Highways <= 6749.5\nsquared_error = 72.25\nsamples = 2\nvalue = 562.5"] ;
14 -> 15 ;
16 [label="squared_error = 0.0\nsamples = 1\nvalue = 554.0"] ;
15 -> 16 ;
17 [label="squared_error = 0.0\nsamples = 1\nvalue = 571.0"] ;
15 -> 17 ;
18 [label="squared_error = 0.0\nsamples = 1\nvalue = 508.0"] ;
14 -> 18 ;
19 [label="Average_income <= 4325.0\nsquared_error = 837.36\nsamples = 5\nvalue = 623.2"] ;
13 -> 19 ;
20 [label="Petrol_tax <= 6.79\nsquared_error = 24.25\nsamples = 4\nvalue = 637.5"] ;
19 -> 20 ;
21 [label="Petrol_tax <= 5.79\nsquared_error = 4.0\nsamples = 2\nvalue = 642.0"] ;
20 -> 21 ;
22 [label="squared_error = 0.0\nsamples = 1\nvalue = 640.0"] ;
21 -> 22 ;
23 [label="squared_error = 0.0\nsamples = 1\nvalue = 644.0"] ;
21 -> 23 ;
24 [label="Petrol_tax <= 7.25\nsquared_error = 4.0\nsamples = 2\nvalue = 633.0"] ;
20 -> 24 ;
25 [label="squared_error = 0.0\nsamples = 1\nvalue = 635.0"] ;
24 -> 25 ;
26 [label="squared_error = 0.0\nsamples = 1\nvalue = 631.0"] ;
24 -> 26 ;
27 [label="squared_error = 0.0\nsamples = 1\nvalue = 566.0"] ;
19 -> 27 ;
28 [label="Population_Driver_licence(%) <= 0.49\nsquared_error = 789.359\nsamples = 8\nvalue = 549.125"] ;
2 -> 28 ;
29 [label="squared_error = 0.0\nsamples = 1\nvalue = 487.0"] ;
28 -> 29 ;
30 [label="Population_Driver_licence(%) <= 0.527\nsquared_error = 272.0\nsamples = 7\nvalue = 558.0"] ;
28 -> 30 ;
31 [label="Population_Driver_licence(%) <= 0.505\nsquared_error = 28.222\nsamples = 3\nvalue = 540.667"] ;
30 -> 31 ;
32 [label="squared_error = 0.0\nsamples = 1\nvalue = 534.0"] ;
31 -> 32 ;
33 [label="Population_Driver_licence(%) <= 0.521\nsquared_error = 9.0\nsamples = 2\nvalue = 544.0"] ;
31 -> 33 ;
34 [label="squared_error = 0.0\nsamples = 1\nvalue = 547.0"] ;
33 -> 34 ;
35 [label="squared_error = 0.0\nsamples = 1\nvalue = 541.0"] ;
33 -> 35 ;
36 [label="Paved_Highways <= 5072.5\nsquared_error = 60.5\nsamples = 4\nvalue = 571.0"] ;
30 -> 36 ;
37 [label="Population_Driver_licence(%) <= 0.562\nsquared_error = 6.25\nsamples = 2\nvalue = 563.5"] ;
36 -> 37 ;
38 [label="squared_error = 0.0\nsamples = 1\nvalue = 566.0"] ;
37 -> 38 ;
39 [label="squared_error = 0.0\nsamples = 1\nvalue = 561.0"] ;
37 -> 39 ;
40 [label="Population_Driver_licence(%) <= 0.539\nsquared_error = 2.25\nsamples = 2\nvalue = 578.5"] ;
36 -> 40 ;
41 [label="squared_error = 0.0\nsamples = 1\nvalue = 580.0"] ;
40 -> 41 ;
42 [label="squared_error = 0.0\nsamples = 1\nvalue = 577.0"] ;
40 -> 42 ;
43 [label="Population_Driver_licence(%) <= 0.6\nsquared_error = 5548.639\nsamples = 13\nvalue = 481.769"] ;
1 -> 43 ;
44 [label="Average_income <= 5222.5\nsquared_error = 2394.909\nsamples = 11\nvalue = 457.0"] ;
43 -> 44 ;
45 [label="Population_Driver_licence(%) <= 0.551\nsquared_error = 1229.81\nsamples = 10\nvalue = 468.3"] ;
44 -> 45 ;
46 [label="Paved_Highways <= 2400.0\nsquared_error = 630.139\nsamples = 6\nvalue = 447.167"] ;
45 -> 46 ;
47 [label="Population_Driver_licence(%) <= 0.537\nsquared_error = 4.0\nsamples = 2\nvalue = 412.0"] ;
46 -> 47 ;
48 [label="squared_error = 0.0\nsamples = 1\nvalue = 414.0"] ;
47 -> 48 ;
49 [label="squared_error = 0.0\nsamples = 1\nvalue = 410.0"] ;
47 -> 49 ;
50 [label="Petrol_tax <= 7.75\nsquared_error = 15.688\nsamples = 4\nvalue = 464.75"] ;
46 -> 50 ;
51 [label="squared_error = 0.0\nsamples = 1\nvalue = 471.0"] ;
50 -> 51 ;
52 [label="Population_Driver_licence(%) <= 0.54\nsquared_error = 3.556\nsamples = 3\nvalue = 462.667"] ;
50 -> 52 ;
53 [label="squared_error = 0.0\nsamples = 2\nvalue = 464.0"] ;
52 -> 53 ;
54 [label="squared_error = 0.0\nsamples = 1\nvalue = 460.0"] ;
52 -> 54 ;
55 [label="Average_income <= 4971.5\nsquared_error = 454.5\nsamples = 4\nvalue = 500.0"] ;
45 -> 55 ;
56 [label="Population_Driver_licence(%) <= 0.572\nsquared_error = 122.0\nsamples = 3\nvalue = 511.0"] ;
55 -> 56 ;
57 [label="Paved_Highways <= 6224.5\nsquared_error = 36.0\nsamples = 2\nvalue = 504.0"] ;
56 -> 57 ;
58 [label="squared_error = 0.0\nsamples = 1\nvalue = 510.0"] ;
57 -> 58 ;
59 [label="squared_error = 0.0\nsamples = 1\nvalue = 498.0"] ;
57 -> 59 ;
60 [label="squared_error = 0.0\nsamples = 1\nvalue = 525.0"] ;
56 -> 60 ;
61 [label="squared_error = 0.0\nsamples = 1\nvalue = 467.0"] ;
55 -> 61 ;
62 [label="squared_error = 0.0\nsamples = 1\nvalue = 344.0"] ;
44 -> 62 ;
63 [label="Paved_Highways <= 6236.5\nsquared_error = 961.0\nsamples = 2\nvalue = 618.0"] ;
43 -> 63 ;
64 [label="squared_error = 0.0\nsamples = 1\nvalue = 587.0"] ;
63 -> 64 ;
65 [label="squared_error = 0.0\nsamples = 1\nvalue = 649.0"] ;
63 -> 65 ;
66 [label="Petrol_tax <= 7.75\nsquared_error = 14404.188\nsamples = 4\nvalue = 813.75"] ;
0 -> 66 [labeldistance=2.5, labelangle=-45, headlabel="False"] ;
67 [label="Average_income <= 4530.5\nsquared_error = 5788.222\nsamples = 3\nvalue = 871.667"] ;
66 -> 67 ;
68 [label="squared_error = 0.0\nsamples = 1\nvalue = 968.0"] ;
67 -> 68 ;
69 [label="Paved_Highways <= 4108.5\nsquared_error = 1722.25\nsamples = 2\nvalue = 823.5"] ;
67 -> 69 ;
70 [label="squared_error = 0.0\nsamples = 1\nvalue = 782.0"] ;
69 -> 70 ;
71 [label="squared_error = 0.0\nsamples = 1\nvalue = 865.0"] ;
69 -> 71 ;
72 [label="squared_error = 0.0\nsamples = 1\nvalue = 640.0"] ;
66 -> 72 ;
}